{
  "Layers": [
    784,
    128,
    64,
    10
  ],
  "Activations": [
    1,
    1,
    3
  ],
  "Weights": [
    [
      [
        -0.011363973,
        -0.014941477,
        0.015932601,
        -0.0067980126,
        -0.04317332,
        -0.06141599,
        0.02966012,
        0.067918964,
        -0.002141173,
        -0.050505847,
        0.05808199,
        -0.060656313,
        0.021146325,
        -0.05752379,
        0.017990993,
        -0.015669724,
        -0.024394209,
        0.06473798,
        0.058187895,
        -0.029956982,
        0.07079263,
        0.036346167,
        -0.0007984092,
        -0.073276855,
        -0.0742006,
        -0.006618303,
        0.03930888,
        -0.06027415,
        0.028610587,
        -0.016477415,
        0.03381447,
        -0.028763156,
        -0.032177188,
        0.04582322,
        0.060905155,
        -0.033002093,
        -0.048203528,
        0.066296026,
        0.06044565,
        -0.003837535,
        -0.014280893,
        -0.06369743,
        0.07984532,
        0.0034901595,
        -0.047755595,
        0.0135073,
        0.042618,
        0.035666514,
        -0.0399493,
        0.07424828,
        -0.0066349492,
        -0.03213599,
        -0.029892245,
        -0.06318426,
        0.04651731,
        0.021478798,
        -0.045887697,
        0.04498532,
        -0.06990542,
        0.051785287,
        0.019078555,
        0.019596409,
        0.031171467,
        -0.042506363,
        0.08622138,
        -0.053554773,
        0.027072962,
        0.079945445,
        0.05866798,
        -0.06789401,
        0.094634354,
        0.031422336,
        -0.020967422,
        0.07023413,
        -0.057547465,
        -0.06293025,
        0.04839998,
        -0.068186365,
        -0.024097344,
        -0.026242487,
        -0.05573659,
        -0.029947108,
        -0.06272557,
        0.0022921548,
        0.022616195,
        0.048208497,
        0.022323834,
        0.029141668,
        -0.074586615,
        0.07694769,
        0.05554612,
        0.003343093,
        0.0013044172,
        -0.051093224,
        0.027254818,
        0.059804387,
        -0.010170956,
        -0.021754747,
        -0.024137622,
        0.022066703,
        0.033889845,
        -0.034922887,
        -0.0705066,
        -0.058106218,
        -0.064740814,
        0.052916337,
        0.07474549,
        -0.057580978,
        0.042831264,
        0.048108242,
        0.028948897,
        0.055398364,
        0.011033098,
        -0.003856677,
        0.04752346,
        -0.041796558,
        0.042960756,
        -0.047199868,
        0.06929799,
        -0.044451494,
        0.030844435,
        -0.028271014,
        0.04909017,
        0.04281814,
        -0.13087052,
        0.006272963,
        -0.091603905,
        -0.16048902,
        -0.082649186,
        -0.029134333,
        -0.1071976,
        -0.13711455,
        -0.11875185,
        -0.057611905,
        -0.12077994,
        -0.09519866,
        -0.07163142,
        0.009365187,
        0.022824379,
        0.06374716,
        -0.0031515236,
        -0.017855152,
        0.020040222,
        0.04228948,
        -0.010332416,
        -0.04503768,
        0.035847023,
        0.0428419,
        0.053840104,
        0.04602628,
        0.056679696,
        -0.011565005,
        0.03107117,
        0.07448133,
        0.036968183,
        -0.022706676,
        -0.06791159,
        -0.07268527,
        -0.10102552,
        0.0072505814,
        -0.081539534,
        -0.07053078,
        -0.05125374,
        -0.10244312,
        -0.12065268,
        -0.099215075,
        0.07332957,
        -0.049575247,
        0.03969183,
        -0.03809382,
        -0.03459271,
        0.010898866,
        0.071429916,
        -0.041952677,
        0.08703688,
        -0.01040115,
        0.09082214,
        0.06714342,
        -0.0018992067,
        0.0052117934,
        -0.012311361,
        0.07771876,
        0.08440459,
        0.054426122,
        -0.0799233,
        -0.018159656,
        0.024274014,
        0.057912566,
        0.05314271,
        0.008871735,
        -0.06486378,
        -0.015194422,
        -0.1331331,
        -0.045907896,
        -0.0552099,
        -0.052364815,
        0.04754272,
        0.0055682124,
        0.07725383,
        0.031501517,
        -0.0053592934,
        -0.041865762,
        -0.047490478,
        0.010022814,
        0.05602975,
        0.0062022936,
        0.10048391,
        0.084103875,
        0.0046357065,
        0.081107005,
        -0.041251402,
        -0.09498641,
        -0.104356036,
        -0.034322012,
        -0.15868756,
        -0.069496326,
        -0.1064683,
        -0.0849604,
        -0.041468292,
        -0.1252435,
        -0.11422453,
        -0.05291117,
        -0.019255009,
        -0.078585654,
        -0.01960113,
        0.047620334,
        -0.05091462,
        -0.01195386,
        -0.069592185,
        -0.04216822,
        -0.11434218,
        -0.11989138,
        0.09393972,
        -0.011871773,
        0.10342419,
        0.14569761,
        0.09809211,
        0.048541058,
        0.042551864,
        0.04922902,
        -0.031044386,
        -0.018585328,
        0.0081855105,
        -0.05791927,
        -0.13090344,
        0.046614703,
        0.017609525,
        0.021997262,
        -0.098482095,
        -0.06514293,
        -0.090998165,
        0.056500215,
        0.055056494,
        -0.0011416188,
        0.0337072,
        -0.013197286,
        -0.09383813,
        -0.0013014658,
        0.016999407,
        0.06903941,
        -0.0733622,
        -0.036422763,
        -0.024871353,
        0.024906572,
        0.070860974,
        -0.054215197,
        -0.060064618,
        -0.025940217,
        0.09335225,
        0.039247826,
        -0.10748629,
        -0.16581887,
        -0.123943344,
        -0.032239188,
        -0.062058847,
        -0.13628991,
        -0.0961009,
        -0.03591459,
        0.03968043,
        -0.008074135,
        0.061269138,
        0.014665303,
        -0.0752121,
        0.0070212884,
        0.039628323,
        -0.042234343,
        -0.079387374,
        0.026760017,
        0.05824549,
        -0.077994205,
        0.021025153,
        0.031768188,
        -0.15503788,
        -0.19262768,
        -0.10264995,
        -0.10502134,
        -0.08453545,
        0.06969214,
        -0.008693447,
        -0.121069334,
        -0.073715694,
        0.027226865,
        0.03864471,
        -0.1216609,
        -0.024041014,
        -0.10177977,
        -0.11886573,
        -0.05196734,
        -0.027638504,
        0.0010449832,
        0.016075455,
        -0.022648823,
        -0.010206287,
        0.016531099,
        -0.040635627,
        -0.035580095,
        0.094255745,
        0.05149341,
        0.004939217,
        -0.017383743,
        -0.16227369,
        -0.16058625,
        -0.007506961,
        -0.006386966,
        0.029210454,
        0.030736659,
        -0.012879928,
        -0.11278533,
        -0.010528765,
        0.06126341,
        0.008473404,
        -0.042097032,
        -0.0635237,
        -0.047515042,
        -0.02895575,
        -0.033924457,
        0.04361333,
        0.0069686826,
        -0.0004761297,
        -0.038863044,
        -0.04578985,
        -0.05405945,
        -0.0135521395,
        -0.06839823,
        -0.031740613,
        0.05598256,
        -0.10452171,
        -0.17841321,
        -0.13068078,
        -0.068709664,
        -0.109963365,
        0.09135025,
        0.09050909,
        0.10763996,
        0.033506364,
        -0.016568575,
        -0.002412203,
        -0.06968613,
        0.05158976,
        0.0210569,
        -0.01967066,
        0.015875146,
        -0.013315741,
        0.031326618,
        0.03713054,
        0.06551894,
        -0.028123511,
        0.039119348,
        -0.013018583,
        0.019259227,
        0.061130494,
        0.025054097,
        -0.061692636,
        -0.1206397,
        -0.033381462,
        -0.114395045,
        -0.040820636,
        -0.06714214,
        -0.069573544,
        -0.005204498,
        0.18855166,
        0.034743745,
        0.12071787,
        0.0759973,
        -0.039150618,
        -0.014741886,
        -0.0028019112,
        0.019154858,
        -0.009696499,
        -0.03279155,
        -0.0051103546,
        0.054206524,
        -0.004789916,
        -0.06830257,
        -0.024136266,
        0.05077895,
        0.029847292,
        -0.04899275,
        0.037459545,
        -0.06381613,
        -0.020995956,
        -0.0054657534,
        -0.104241416,
        -0.058849327,
        0.052633803,
        -0.0037122949,
        0.0298351,
        -0.0043016933,
        0.05643842,
        0.07984116,
        0.16962872,
        0.09151532,
        -0.06654651,
        0.05161219,
        0.05097501,
        -0.061572507,
        0.018053165,
        0.07713715,
        -0.059837665,
        -0.052699644,
        -0.07347387,
        -0.052026372,
        -0.0038554564,
        0.081366085,
        -0.030716248,
        0.016456276,
        -0.037385155,
        -0.051086836,
        -0.016252372,
        0.07140208,
        -0.014478125,
        -0.035756726,
        0.08390981,
        0.019253643,
        0.00471543,
        0.020625655,
        0.06253797,
        0.0026928557,
        0.05478159,
        0.03710436,
        -0.038628895,
        0.029311474,
        0.074642725,
        -0.0025853901,
        0.040929448,
        0.0070202174,
        -0.062195055,
        -0.038317766,
        -0.005398811,
        0.03388429,
        -0.046041302,
        -0.0802065,
        -0.030374598,
        -0.092296705,
        0.0671106,
        -0.01473232,
        -0.026690144,
        -0.0183211,
        0.017627357,
        0.17832018,
        0.030617181,
        -0.09312586,
        0.04398542,
        0.06518314,
        -0.040165685,
        -0.034722213,
        -0.03958363,
        -0.037498478,
        -0.101869375,
        -0.05473137,
        0.02395068,
        -0.07303092,
        0.0658758,
        0.039195146,
        -0.02168121,
        -0.059758566,
        -0.005160409,
        -0.03023779,
        -0.06543579,
        -0.07404818,
        0.0028318884,
        -0.027727151,
        0.037957743,
        -0.123502195,
        -0.00981445,
        0.05804379,
        -0.0021691285,
        0.0889061,
        -0.013523167,
        -0.111582555,
        -0.018679027,
        -0.06294142,
        -0.06401569,
        0.023107605,
        -0.08872787,
        0.019968225,
        0.045612913,
        -0.10834121,
        0.03357755,
        -0.091143146,
        0.026245898,
        -0.048609212,
        0.05421354,
        -0.0111523485,
        0.025876755,
        -0.035805605,
        0.042232875,
        -0.0077565997,
        -0.09844534,
        -0.035498425,
        -0.1303994,
        -0.06709109,
        -0.0016779824,
        0.018497352,
        0.015023355,
        0.047315262,
        0.04880863,
        0.038269535,
        -0.08169434,
        0.078515284,
        -0.048839927,
        -0.046288185,
        0.09676916,
        -0.008021301,
        -0.06546994,
        0.0014397465,
        -0.021462504,
        0.0023766619,
        0.066380255,
        0.05708379,
        0.010176481,
        0.046277083,
        -0.037261844,
        0.07750535,
        -0.04909533,
        -0.020356841,
        -0.11876648,
        -0.11708542,
        -0.08072567,
        -0.18006572,
        -0.04859751,
        0.034118947,
        -0.04660501,
        0.07321274,
        -0.046920728,
        0.0027694171,
        0.050365604,
        0.055275004,
        -0.0067111277,
        0.12544988,
        -0.03585872,
        0.0350919,
        -0.07094667,
        -0.07534886,
        -0.089643784,
        -0.021803454,
        -0.10647478,
        -0.04337774,
        0.05859492,
        0.05291182,
        -0.06722621,
        -0.047953755,
        -0.0051200977,
        -0.06394715,
        -0.09828089,
        -0.14143063,
        -0.054756038,
        0.012955232,
        -0.056552086,
        -0.049011163,
        -0.09281601,
        0.0064230193,
        0.07905191,
        -0.008346663,
        0.11213733,
        -0.00053769833,
        -0.012693798,
        0.0019040285,
        0.058293402,
        -0.12304978,
        -0.076513164,
        -0.007867826,
        -0.07849043,
        -0.07987196,
        -0.09485058,
        -0.008464063,
        0.0029033658,
        0.08072543,
        -0.036253564,
        0.0051549235,
        -0.015998278,
        -0.021900147,
        -0.108862646,
        -0.10008687,
        -0.11166064,
        -0.15258735,
        -0.061172247,
        0.0053710216,
        0.00984199,
        0.072569326,
        0.09343461,
        0.08722802,
        0.0040111504,
        0.028598113,
        0.0017862405,
        -0.06871748,
        -0.13951558,
        0.021746743,
        -0.07283597,
        -0.0779403,
        -0.08128937,
        -0.025892114,
        -0.042858418,
        -0.07335093,
        0.029487638,
        -0.06840604,
        0.03388563,
        0.07677499,
        0.034359533,
        0.040203784,
        -0.04187027,
        -0.05292021,
        0.0007920535,
        -0.0971443,
        0.041855976,
        -0.04318053,
        0.06987353,
        -0.0115575185,
        0.039443802,
        0.042466067,
        0.06393954,
        0.020844936,
        -0.0042719096,
        -0.037495863,
        -0.0862762,
        -0.039462622,
        -0.059937652,
        0.048944034,
        0.0026174998,
        0.029986547,
        0.022891074,
        0.043890927,
        0.051721834,
        0.0050114994,
        -0.047537804,
        -0.008150694,
        -0.04964177,
        -0.019824965,
        -0.015324974,
        0.0014182184,
        -0.008380437,
        -0.023210231,
        -0.101723254,
        -0.05621766,
        0.04072793,
        0.020623108,
        0.10408062,
        0.08724833,
        0.031972636,
        -0.113023184,
        0.0028507411,
        0.04401397,
        0.054422572,
        -0.056271665,
        0.03786976,
        -0.086426325,
        -0.09816682,
        0.014854443,
        -0.055264156,
        -0.028044997,
        0.056653507,
        -0.011088743,
        0.033731837,
        -0.051217135,
        0.07388377,
        -0.066809766,
        0.0060035377,
        0.060642622,
        -0.082022145,
        -0.000552932,
        0.018422958,
        0.041896377,
        0.0014751175,
        -0.09376913,
        0.004481744,
        -0.005645812,
        -0.08247737,
        -0.07366593,
        -0.05348627,
        0.025324848,
        -0.09230866,
        0.011221294,
        -0.08028975,
        0.026455613,
        0.03502015,
        -0.034691066,
        0.069261245,
        -0.03292558,
        0.004666415,
        0.012748814,
        0.033566166,
        -0.06578603,
        0.005094102,
        0.03222654,
        -0.019097019,
        0.04132294,
        -0.03956315,
        -0.015645904,
        -0.04958687,
        0.07911718,
        -0.03681466,
        -0.0329728,
        -0.071077555,
        0.049978282,
        -0.01218558,
        -0.034325063,
        -0.07032478,
        -0.020265982,
        -0.037298415,
        -0.09746142,
        -0.10977683,
        -0.049069263,
        0.008527592,
        -0.046190623,
        0.06718276,
        -0.0554454,
        -0.044819333,
        -0.029226527,
        -0.06343111,
        -0.04219802,
        -0.0052606957,
        0.009159448,
        -0.020777257,
        0.066314444,
        -0.03446055,
        0.0047747856,
        -0.044577934,
        -0.032230068,
        0.032141402,
        -0.0015914566,
        0.017470535,
        -0.016189387,
        -0.054490298,
        -0.08792251,
        -0.06869484,
        -0.044788692,
        0.008486697,
        -0.017772768,
        -0.038212802,
        -0.013821122,
        0.017170718,
        -0.07561168,
        0.058047332,
        0.0011333377,
        0.020813428,
        0.054584444,
        -0.06341235,
        -0.05997051,
        -0.066119,
        0.028773548,
        -0.039584696,
        -0.043805156,
        -0.0720435,
        0.078029215,
        -0.07305451,
        0.07092883,
        0.043419864,
        -0.0041134343,
        0.024675427,
        0.06243689,
        -0.040899873,
        0.0740554,
        0.042581446,
        0.0025730953,
        0.05253045,
        0.0746318,
        0.008744707,
        -0.06877912,
        -0.061648227,
        -0.0024005293,
        0.021813542,
        -0.059130434,
        0.04903895,
        -0.072888546
      ],
      [
        -0.051326703,
        -0.07296896,
        -0.001804645,
        -0.04758302,
        -0.024742533,
        0.050051205,
        -0.02909015,
        -0.002586477,
        -0.047185615,
        -0.05239643,
        0.06432094,
        0.006543909,
        0.043278623,
        -0.009197705,
        -0.018597916,
        -0.016118597,
        0.054229274,
        0.05014091,
        -0.07012628,
        -0.008562957,
        0.074585475,
        0.031397164,
        0.031897765,
        0.06653251,
        -0.020022132,
        -0.04581111,
        0.06187991,
        0.050106898,
        0.0171665,
        -0.06723024,
        -0.0067887194,
        0.06794233,
        0.015180987,
        0.074138574,
        -0.008579689,
        0.02147082,
        0.0062276954,
        -0.0041359025,
        -0.032108184,
        -0.06381564,
        0.05059483,
        -0.065446384,
        0.068130486,
        -0.0630994,
        -0.06497459,
        0.013378065,
        -0.026854763,
        0.048433475,
        -0.03361933,
        -0.04300424,
        0.04920214,
        0.025665231,
        -0.074942164,
        0.02884364,
        0.047384027,
        -0.009236561,
        -0.03139603,
        -0.047892958,
        0.069099195,
        -0.07007365,
        0.047898334,
        0.07548518,
        0.023428297,
        0.015320661,
        -0.050305627,
        0.08159105,
        -0.044462387,
        0.09386069,
        0.0685623,
        0.01846811,
        -0.07643499,
        -0.0073258346,
        -0.037542515,
        0.04226216,
        0.019643554,
        0.016389472,
        -0.079187684,
        -0.062217753,
        -0.0069191153,
        0.07867845,
        0.026373513,
        -0.050694864,
        -0.018511115,
        -0.057858404,
        0.0012861611,
        0.07234368,
        0.021159245,
        0.04539191,
        0.035373155,
        0.034350634,
        0.02256397,
        -0.057962324,
        0.09516933,
        0.02832926,
        0.033832826,
        0.027395042,
        0.09853301,
        0.06878988,
        0.04125605,
        -0.014259761,
        0.030242225,
        0.055883314,
        -0.040308416,
        0.055652168,
        0.055943422,
        -0.023537016,
        0.061740845,
        -0.0006287083,
        -0.0067436974,
        -0.030171575,
        0.0661597,
        -0.0009473556,
        0.07703995,
        -0.008745114,
        -0.0066671185,
        -0.028945642,
        -0.0468902,
        0.07296398,
        0.03044253,
        0.058066636,
        0.015133485,
        0.015269894,
        0.017270258,
        0.10584923,
        -0.016586106,
        -0.051186077,
        -0.051191222,
        0.044923067,
        0.0413628,
        -0.039522,
        -0.08445072,
        -0.0434439,
        -0.10237403,
        -0.12363554,
        -0.06986943,
        -0.10770119,
        -0.1002536,
        0.055347387,
        0.077262,
        0.019914191,
        -0.05745054,
        0.07529447,
        0.07772561,
        -0.033541244,
        0.04452533,
        0.0021130966,
        -0.023903446,
        0.08051626,
        -0.015835084,
        -0.001412803,
        0.010209876,
        -0.028744008,
        -0.029657902,
        0.057717744,
        0.09839565,
        0.14287254,
        0.055829905,
        -0.12001533,
        0.0015172272,
        -0.028645115,
        -0.04318281,
        -0.015691549,
        -0.03203046,
        0.007048851,
        -0.034159467,
        -0.014844149,
        0.0038602622,
        -0.020460602,
        0.0446523,
        0.018983763,
        0.047994554,
        -0.023169143,
        -0.056705624,
        0.10337724,
        -0.026504673,
        0.097168155,
        0.03166353,
        0.033224873,
        -0.020815887,
        0.047266815,
        0.08737522,
        0.092683315,
        0.015737467,
        -0.043688394,
        0.014758771,
        -0.0021435723,
        0.020134073,
        -0.091937505,
        -0.05915474,
        -0.060360003,
        -0.0011494018,
        -0.07982535,
        -0.045785867,
        0.02795732,
        0.08059996,
        -0.005819856,
        -0.022557735,
        -0.04377678,
        -0.043110296,
        -0.052694295,
        0.086763725,
        0.09421554,
        0.05274308,
        0.0715578,
        0.10286418,
        -0.03782367,
        0.017686397,
        0.05517899,
        0.02854652,
        0.14717782,
        0.18811074,
        -0.12106063,
        -0.023964083,
        0.0021401974,
        -0.043194935,
        -0.046793584,
        -0.13031577,
        0.003222955,
        -0.04072746,
        -0.05014585,
        -0.09636769,
        -0.009501895,
        0.02055496,
        -0.027296996,
        0.056195352,
        -0.040248677,
        -0.02542386,
        -0.018722119,
        0.10928857,
        0.043906607,
        -0.050446935,
        0.053393673,
        -0.094385,
        -0.06284616,
        0.022344455,
        -0.05519795,
        0.117615506,
        -0.039559193,
        0.041008614,
        -0.009377474,
        0.05063437,
        -0.0012964497,
        0.05768875,
        0.019090721,
        -0.058930617,
        -0.08958718,
        0.06063772,
        -0.06503364,
        -0.13548203,
        0.022358272,
        -0.008718801,
        0.017698694,
        0.074530005,
        0.044550557,
        -0.022201378,
        -0.021520484,
        0.13542882,
        -0.008252722,
        0.051151022,
        0.07778721,
        0.057732914,
        -0.04109202,
        -0.01733866,
        -6.816122E-05,
        0.08713367,
        0.030742455,
        0.172733,
        0.17130542,
        0.24527588,
        0.20139298,
        0.17341448,
        0.033112086,
        -0.055826288,
        -0.071549475,
        0.0006266784,
        0.025815047,
        -0.013684781,
        0.039284497,
        0.055408187,
        -0.061010122,
        0.02617736,
        0.06118443,
        -0.050098263,
        -0.036142286,
        -0.024129977,
        -0.04063769,
        0.02875488,
        -0.004456196,
        -0.08702136,
        -0.11407486,
        -0.045824863,
        -0.01924423,
        0.072268315,
        0.20226441,
        0.13428676,
        0.116084486,
        0.2152166,
        0.13763039,
        0.103537686,
        -0.046022862,
        0.05168147,
        -0.047800545,
        0.0137441,
        0.044696342,
        -0.07217509,
        -0.023172904,
        -0.0015467346,
        -0.049673524,
        0.01693618,
        -0.03842284,
        0.022012774,
        -0.040273044,
        0.08926659,
        0.012153841,
        -0.033456467,
        -0.12703058,
        -0.17082117,
        -0.15053824,
        -0.0026404518,
        -0.015712911,
        -0.0351896,
        0.03635787,
        -0.0054650614,
        -0.00242251,
        -0.123570934,
        0.10297318,
        0.10869708,
        -0.009284419,
        0.07608136,
        -0.040034004,
        -0.087496094,
        -0.10913398,
        -0.05975936,
        0.06643745,
        -0.024395173,
        0.06576305,
        -0.056100138,
        -0.021789327,
        0.052799698,
        -0.013577074,
        0.029435726,
        -0.105072305,
        -0.016079793,
        -0.12563807,
        -0.16728027,
        -0.13561784,
        -0.08170747,
        -0.16868353,
        -0.029716732,
        -0.09324934,
        -0.14995702,
        -0.009175192,
        -0.059468195,
        0.022456488,
        0.024056716,
        -0.08674708,
        0.033298876,
        0.012922054,
        0.03158583,
        -0.14741614,
        0.0126659,
        0.010816815,
        0.053133745,
        0.05255083,
        -0.030881695,
        -0.013423283,
        0.02841393,
        0.06669778,
        0.02761211,
        -0.14166336,
        -0.03080643,
        -0.12282559,
        -0.11699943,
        0.027437165,
        -0.10163564,
        -0.043588053,
        -0.115695946,
        -0.1357367,
        -0.0018728938,
        -0.0910562,
        -0.042377677,
        0.0983738,
        -0.06280078,
        -0.042100787,
        -0.011569858,
        -0.033952493,
        -0.12255996,
        -0.15232295,
        0.023257632,
        -0.019995373,
        -0.04912997,
        -0.034355447,
        0.054465648,
        0.00878591,
        -0.05401368,
        -0.03764303,
        0.002087262,
        -0.04714241,
        -0.05037326,
        -0.066199325,
        0.023295099,
        0.0053966604,
        -0.005808377,
        -0.043677073,
        -0.013032574,
        -0.059543192,
        -0.039958205,
        -0.0149002345,
        0.04904252,
        -0.0070595327,
        -0.061438937,
        0.137573,
        -0.0009084625,
        0.018364396,
        -0.104144216,
        -0.06966263,
        -0.06173908,
        -0.051997554,
        0.05551442,
        0.032955814,
        -0.041003168,
        -0.012603637,
        -0.06844927,
        -0.046354253,
        0.047563743,
        -0.030815655,
        0.0029511421,
        0.004880126,
        -0.050135583,
        -0.04679582,
        0.0064764763,
        0.0061544757,
        0.030952511,
        -0.02655427,
        0.0029740592,
        -0.050876442,
        -0.0013128241,
        0.042451028,
        0.08736955,
        -0.04459346,
        0.023381962,
        -0.13189068,
        0.00837904,
        0.042445965,
        -0.058762588,
        -0.076334804,
        -0.05983058,
        0.0019310747,
        0.0017809344,
        0.05527442,
        0.03944953,
        -0.03848961,
        0.09632947,
        0.009472955,
        0.010815637,
        -0.051424295,
        -0.0656121,
        -0.104479276,
        -0.12737748,
        0.03900079,
        -0.13386604,
        0.06322598,
        0.10959536,
        0.10974115,
        0.09138557,
        -0.0379568,
        -0.048148878,
        -0.00024187277,
        -0.054058496,
        0.03303704,
        0.037002083,
        -0.071837656,
        -0.011848023,
        -0.05560174,
        -0.06074746,
        -0.0049213017,
        -0.04788008,
        0.0526893,
        -0.069214374,
        0.07771779,
        0.0202252,
        0.089396976,
        0.021888431,
        -0.034052856,
        -0.15902098,
        -0.12462708,
        -0.13753787,
        -0.14566395,
        -0.038029484,
        0.017555907,
        -0.0054498794,
        0.022196846,
        0.11185356,
        0.09414549,
        0.114428766,
        0.006884878,
        -0.06024387,
        -0.0034594147,
        -0.014372812,
        0.052340213,
        -0.047326088,
        -0.00086855836,
        -0.06122261,
        0.053931594,
        0.036458213,
        -0.021808825,
        0.019505007,
        -0.014134001,
        0.03226908,
        -0.025901616,
        -0.07366989,
        -0.029317565,
        -0.049462847,
        -0.017338006,
        -0.0988379,
        0.03749887,
        -0.11563309,
        0.060408536,
        0.07944794,
        0.07951814,
        0.087430574,
        0.05109811,
        0.028496144,
        0.060529992,
        -0.015132245,
        0.13754377,
        0.060455743,
        0.026755435,
        -0.040156055,
        0.015308137,
        0.059168335,
        0.07098512,
        -0.06691237,
        -0.009282239,
        -0.0049895872,
        0.043606013,
        0.048904937,
        0.07130708,
        0.07251632,
        0.03023468,
        -0.056164224,
        -0.05766818,
        0.006954495,
        0.07732235,
        0.06591511,
        0.0743108,
        -0.013955685,
        -0.016775224,
        0.008124622,
        0.020113153,
        -0.02143117,
        -0.030293413,
        -0.09528125,
        0.033096362,
        -0.038610112,
        0.08178019,
        0.052778516,
        0.055097397,
        0.09276921,
        -0.024060242,
        -0.07975989,
        0.02573355,
        0.037073668,
        0.05773665,
        0.048156485,
        0.022071147,
        -0.045886528,
        0.07666142,
        0.040479995,
        0.05354672,
        0.101970546,
        0.019470703,
        0.040277515,
        0.009714656,
        0.12311303,
        -0.005835019,
        0.08605122,
        0.09196759,
        0.099544436,
        0.015932867,
        0.044976432,
        0.076739185,
        0.06978663,
        0.04481228,
        0.057447456,
        0.02667872,
        -0.062070806,
        -0.05444251,
        -0.042619288,
        0.06700115,
        -0.057642862,
        -0.039665326,
        0.04955419,
        0.0132686775,
        0.03366626,
        0.08250057,
        0.06764876,
        -0.04475454,
        0.08543911,
        0.11077696,
        0.050197676,
        0.1008756,
        0.15539883,
        0.0017699645,
        0.034865737,
        0.037267476,
        0.037771616,
        -0.018142683,
        -0.06581548,
        -0.04271749,
        -0.008638667,
        0.01856219,
        0.014111338,
        -0.031546593,
        -0.03029598,
        -0.049155753,
        -0.049467467,
        0.04397831,
        0.00249472,
        0.015242207,
        -0.06911368,
        0.08769392,
        0.09461336,
        0.03060194,
        -0.036343455,
        -0.050527494,
        0.010671994,
        -0.1052755,
        0.014755602,
        0.051116716,
        0.19627173,
        0.11034922,
        0.040389027,
        0.0681578,
        0.039553177,
        0.066548824,
        -0.017470924,
        -0.01172287,
        0.06530413,
        -0.074457936,
        0.011983079,
        -0.072677314,
        -0.067105174,
        0.040374544,
        0.0076949345,
        -0.015111319,
        -0.019909158,
        0.039757878,
        0.048506238,
        0.069440775,
        0.056118343,
        0.056386027,
        -0.098352924,
        0.06345723,
        0.06427043,
        0.17994593,
        0.090480074,
        0.2049944,
        0.085962206,
        0.14382854,
        0.073699534,
        -0.008006969,
        -0.02002135,
        -0.0842027,
        -0.045017183,
        -0.017652322,
        -0.045182366,
        0.0003426008,
        -0.008086851,
        0.0453262,
        0.029949388,
        -0.01936605,
        0.014633678,
        0.05026164,
        -0.0007188377,
        -0.031821135,
        0.06272031,
        -0.00077122205,
        -0.0065860474,
        0.05776347,
        0.09788652,
        0.11168943,
        0.09934803,
        0.022046313,
        0.07283578,
        -0.010267067,
        0.10383713,
        0.08590977,
        -0.08263058,
        0.121810466,
        0.03350651,
        -0.08525684,
        -0.015230582,
        -0.062271547,
        0.05960452,
        -0.044265892,
        -0.037551414,
        -0.07223775,
        0.0101913465,
        -0.026358465,
        -0.02558326,
        -0.07913287,
        0.015896767,
        0.007869909,
        0.023370354,
        0.02678115,
        0.004211275,
        0.09919843,
        0.12545079,
        0.062158305,
        0.09247421,
        -0.048012607,
        0.11296357,
        0.0344034,
        -0.039942164,
        -0.06638235,
        -0.05887235,
        -0.030996202,
        -0.044672944,
        0.03578079,
        0.036113784,
        -0.09038691,
        -0.02143219,
        -0.024610244,
        -0.022112312,
        0.051060397,
        0.0264291,
        -0.014627466,
        0.006011538,
        -0.07681754,
        -0.02359085,
        -0.0024033503,
        0.0042526335,
        -0.10337483,
        -0.1081936,
        0.065764874,
        -0.04374627,
        -0.016998697,
        0.05231461,
        -0.04416374,
        0.022814313,
        -0.0103487335,
        0.012123665,
        -0.03582437,
        -0.026292339,
        -0.07105112,
        -0.0065102275,
        -0.07371697,
        -0.10196376,
        -0.037335847,
        -0.03714357,
        -0.009762991,
        0.04514698,
        0.017653339,
        0.04573038,
        0.0021392321,
        0.029535206,
        -0.01681142,
        -0.00755566,
        0.042021837,
        0.051281966,
        0.047904406,
        -0.053016942,
        0.03527381,
        -0.03127112,
        0.017812582,
        -0.024533764,
        -0.029752618,
        0.084058836,
        -0.058895174,
        0.059110984,
        -0.08272309,
        0.02731821,
        0.024838634,
        -0.009831221,
        0.041139524,
        0.06772052,
        -0.04899157,
        -0.073445894,
        0.05786699,
        -0.044128913,
        -0.03498862,
        0.0027654555,
        0.008828219
      ],
      [
        0.06818555,
        -0.003138086,
        0.049398165,
        -0.05721072,
        -0.00885178,
        0.010151534,
        0.065199,
        -0.005813965,
        0.023295784,
        0.05765365,
        -0.03675023,
        0.032519612,
        -0.059247203,
        -0.06480257,
        0.026553778,
        -0.06991149,
        -0.02768964,
        -0.06405212,
        -0.00989147,
        0.008490184,
        0.029284451,
        -0.03543447,
        -0.07115683,
        -0.061509322,
        -0.048825104,
        0.057486612,
        -0.020826384,
        0.01060546,
        0.079794936,
        0.02000832,
        0.0664434,
        0.06537908,
        -0.008304124,
        0.011580682,
        0.057646185,
        -0.0012975652,
        0.06540883,
        0.06628964,
        -0.06268339,
        -0.077663735,
        0.07393698,
        0.07997881,
        0.035168257,
        -0.083449535,
        0.058291495,
        0.059954464,
        -0.06907592,
        -0.027394945,
        0.05369331,
        -0.012725761,
        -0.03117077,
        0.036797363,
        -0.03855647,
        0.025479844,
        0.036542438,
        -0.012006075,
        0.0653786,
        0.02017022,
        -0.041701242,
        -0.029495826,
        -0.03335887,
        -0.04874015,
        -0.06878384,
        0.074842,
        0.012460261,
        0.050397556,
        0.05074414,
        0.0036761528,
        -0.032056514,
        -0.016304776,
        -0.07487215,
        -0.06147881,
        -0.024955804,
        -0.016581954,
        -0.013402652,
        -0.07027188,
        -0.037819188,
        -0.064155445,
        -0.06544701,
        0.037181433,
        -0.049300324,
        0.050013255,
        -0.04620503,
        0.026186857,
        0.0704032,
        0.068641305,
        -0.012583775,
        0.049276184,
        -0.02572442,
        -0.055342514,
        0.0351057,
        -0.05320845,
        0.034032404,
        0.014377727,
        -0.024626845,
        0.08656332,
        -0.026474766,
        -0.007519173,
        0.018992301,
        -0.022956239,
        0.045996163,
        -0.084711,
        0.09497174,
        0.030923149,
        0.076800376,
        0.08745524,
        0.0580301,
        0.027500026,
        -0.028843604,
        -0.028195025,
        0.01364678,
        0.031358574,
        0.020572279,
        0.07330198,
        -0.06034096,
        0.04315204,
        -0.044094764,
        0.026911855,
        -0.075977296,
        -0.03429677,
        0.0950303,
        0.077364266,
        -0.006931786,
        -0.026640166,
        0.06092148,
        0.043640174,
        -0.04849348,
        -0.03341144,
        0.042507518,
        0.05607269,
        0.048627745,
        0.0009041743,
        -0.0010751679,
        0.06083761,
        0.045622755,
        0.04203462,
        -0.04837519,
        0.019989623,
        0.083973296,
        0.056787573,
        -0.058653362,
        -0.047976963,
        -0.06590699,
        -0.04976345,
        -0.023466088,
        -0.025451567,
        0.04215957,
        0.018239725,
        0.033431347,
        -0.0865125,
        -9.182115E-05,
        -0.08861663,
        -0.076743595,
        0.0038192156,
        -0.0037247299,
        0.092052154,
        0.007893727,
        0.016305812,
        0.051001668,
        -0.046970952,
        0.05320221,
        0.061943308,
        -0.037338067,
        -0.061207347,
        0.09602983,
        -0.008519748,
        -0.021078628,
        -0.0050516455,
        -0.05641244,
        -0.009040448,
        -0.035635687,
        -0.002111732,
        -0.03999838,
        0.062549286,
        0.056623567,
        0.0132348295,
        -0.07824717,
        0.054119915,
        -0.008696081,
        0.024374437,
        -0.07452198,
        -0.013207378,
        -0.017086638,
        0.10226668,
        0.14305785,
        0.030589607,
        -0.03457767,
        -0.010590428,
        -0.12593913,
        -0.09803077,
        0.004249606,
        0.022469865,
        0.0029077462,
        0.07788364,
        0.071435794,
        0.07529385,
        -0.025864828,
        0.06942778,
        -0.07246437,
        -0.050300334,
        0.05281616,
        0.050351087,
        -0.028066235,
        0.051514614,
        0.08365851,
        0.049556915,
        0.10041317,
        -0.011829022,
        -0.052534726,
        0.047717217,
        0.046904616,
        0.04933259,
        0.05598193,
        0.0030719598,
        -0.00053116935,
        -0.004444844,
        -0.08477923,
        -0.065306716,
        0.027443396,
        0.072541736,
        0.0070026247,
        0.02501631,
        0.06944993,
        0.07816695,
        -0.04218222,
        -0.016180333,
        -0.030899761,
        -0.06523212,
        0.07529847,
        0.07034856,
        0.03551617,
        0.049462143,
        -0.05304488,
        0.025974434,
        0.014664488,
        -0.050411947,
        0.07761737,
        0.105958074,
        0.093670525,
        0.046925146,
        0.054547917,
        0.12144299,
        0.041309223,
        -0.032398704,
        0.070011266,
        0.03993818,
        -0.028646363,
        -0.032025713,
        -0.043926824,
        0.09640701,
        0.07331553,
        0.041536905,
        0.047072932,
        -0.038504876,
        0.035099488,
        0.09895292,
        -0.023154758,
        -0.11327384,
        0.020162292,
        0.072646484,
        -0.013858437,
        0.07969596,
        -0.06850489,
        -0.008746554,
        -0.015900126,
        0.03204676,
        0.10209735,
        0.033838358,
        0.035025362,
        -0.0006062194,
        -0.0057844715,
        0.0029193638,
        0.08910528,
        0.09734568,
        0.05923105,
        -0.012498816,
        0.09504986,
        0.07268951,
        0.037124705,
        0.029571136,
        -0.02331004,
        0.07889476,
        -0.019397074,
        -0.021813538,
        -0.037067454,
        0.0032227181,
        -0.04772039,
        -0.018918462,
        0.011759308,
        -0.05968441,
        -0.04628977,
        0.025293622,
        -0.043148592,
        0.02802344,
        0.04221401,
        0.054647155,
        -0.019306378,
        -0.024403146,
        -0.00913156,
        -0.020866228,
        -0.010487253,
        0.008979607,
        -0.10556704,
        -0.05435464,
        -0.0360948,
        0.101612344,
        0.070261545,
        0.07922172,
        -0.037914447,
        0.03713443,
        -0.04142841,
        0.05914114,
        -0.018753316,
        -0.0305124,
        0.086092286,
        0.04801127,
        0.08668284,
        -0.04284647,
        0.04565341,
        0.027697416,
        0.13327013,
        0.05902131,
        0.12456391,
        0.027177466,
        -0.016363956,
        0.11246453,
        0.09086685,
        0.09303836,
        0.005871716,
        -0.027881604,
        0.05887393,
        -0.010871261,
        0.079293005,
        -0.017827062,
        0.0106026,
        0.016747855,
        0.04883435,
        -0.051767267,
        0.013430513,
        0.032588016,
        0.024118464,
        -0.01789299,
        0.058618583,
        0.0068371044,
        -0.03416193,
        -0.10162239,
        0.068536304,
        -0.012669921,
        0.059857957,
        0.11725887,
        0.045850933,
        -0.0083322255,
        0.05747131,
        0.124990255,
        -0.07542014,
        -0.051442128,
        0.00625214,
        -0.025405528,
        -0.015652467,
        -0.0428259,
        -0.043450195,
        0.009394042,
        0.061417338,
        0.019590825,
        0.02748723,
        -0.007977062,
        -0.06287521,
        -0.08291898,
        -0.08455235,
        0.04587283,
        -0.070944905,
        -0.03936369,
        0.025838021,
        0.007990006,
        -0.017510194,
        0.04639774,
        0.11936478,
        0.07902159,
        -0.007836378,
        0.13243037,
        0.04227016,
        -0.06920528,
        0.027329195,
        0.009505218,
        -0.11009487,
        -0.07268685,
        0.02875679,
        0.0043186196,
        -0.09142849,
        0.052306358,
        0.03548134,
        -0.030034384,
        0.030842487,
        -0.032504316,
        0.06097911,
        -0.061842117,
        -0.050520025,
        -0.110691585,
        -0.07063772,
        -0.05196974,
        0.01508788,
        -0.039691817,
        0.09662056,
        -0.006288265,
        0.03465107,
        0.077720046,
        -0.025372526,
        -0.022871075,
        0.058808327,
        0.058698364,
        0.05126847,
        -0.10303283,
        0.011790414,
        0.06273022,
        -0.01405134,
        0.032261644,
        -0.0845642,
        0.053920615,
        0.014814817,
        0.06431073,
        0.055010263,
        0.03326149,
        0.046574105,
        -0.010694529,
        -0.052571017,
        0.025464652,
        0.057936642,
        0.019958267,
        0.015350451,
        0.023469947,
        0.013407489,
        0.022570314,
        0.09989885,
        0.063753545,
        0.00862169,
        -0.079215385,
        0.10411327,
        0.0034580575,
        -0.036262076,
        -0.014864477,
        -0.073328756,
        -0.032268878,
        -0.048465762,
        -0.0041940366,
        -0.07389346,
        0.028527133,
        0.026413871,
        0.07022259,
        0.059655473,
        0.07395097,
        0.057194248,
        0.08641349,
        -0.07265445,
        -0.027584402,
        -0.070167,
        -0.055892084,
        0.03276536,
        0.05983874,
        0.12065019,
        0.08617337,
        0.08188389,
        -0.009260474,
        -0.0508763,
        -0.08504293,
        0.06276347,
        0.0537716,
        0.05448226,
        -0.081884645,
        -0.12925318,
        -0.01570583,
        0.009453298,
        -0.019331217,
        -0.028268354,
        -0.015065028,
        -0.024505753,
        -0.017895952,
        0.06589698,
        0.021097988,
        -0.05826372,
        0.0009686852,
        0.0024591829,
        -0.064049095,
        -0.06716754,
        -0.13174717,
        -0.050028868,
        -0.088908724,
        0.035817508,
        0.08205526,
        -0.029173074,
        0.116420075,
        0.03558667,
        0.020374686,
        0.04085308,
        0.11520511,
        -0.0068528596,
        -0.048646886,
        -0.04929749,
        -0.022350596,
        0.08318393,
        -0.009970697,
        -0.112438686,
        0.025054235,
        -0.024170084,
        -0.011846038,
        -0.020217227,
        0.038049277,
        -0.049038894,
        0.06402141,
        0.061922006,
        -0.03052657,
        -0.011323225,
        -0.09548582,
        -0.049952798,
        -0.034940675,
        0.027233956,
        0.04375224,
        -0.009142142,
        0.08113616,
        0.030548353,
        0.04873991,
        0.09451977,
        -0.009872804,
        0.01081291,
        -0.08900688,
        0.0007288079,
        0.09595802,
        -0.074814126,
        0.020675637,
        0.00998402,
        -0.03620625,
        0.023968533,
        -0.028818686,
        -0.03909761,
        0.0053525516,
        0.05107934,
        0.07390423,
        -0.04664425,
        0.03411125,
        0.033623602,
        -0.07623293,
        -0.04563725,
        -0.071975395,
        -0.1379005,
        -0.07602663,
        -0.025617234,
        0.042379342,
        -0.0005296021,
        0.017818002,
        0.10838483,
        0.010198695,
        0.059994724,
        0.01601921,
        -0.086413026,
        0.06875583,
        -0.071179256,
        0.048265994,
        -0.092437334,
        0.03738868,
        -0.0057811346,
        -0.00850732,
        -0.0012257582,
        0.061805874,
        -0.0660899,
        0.017788725,
        0.099366635,
        0.0037670832,
        -0.052951347,
        -0.0616404,
        0.008553372,
        -0.031265453,
        -0.12547652,
        -0.036439545,
        -0.049810193,
        0.010166027,
        0.13604692,
        0.1363162,
        0.093217455,
        0.07152483,
        0.03463616,
        0.109149836,
        0.06290722,
        0.025371306,
        0.038741037,
        0.004869537,
        -0.11182384,
        -0.03483292,
        0.038609397,
        0.018635698,
        0.057278994,
        -0.00379655,
        -0.07234161,
        0.0022876086,
        0.0063039935,
        -0.003499862,
        0.02242675,
        0.07532161,
        0.047922064,
        -0.05120234,
        -0.030879375,
        -0.107305646,
        -0.063557036,
        -0.008436258,
        0.04401392,
        0.021102017,
        0.1094449,
        0.031186776,
        0.041827228,
        0.01842601,
        0.03244554,
        0.045609385,
        0.05687525,
        -0.086711906,
        0.05189833,
        -0.04163008,
        0.023697779,
        -0.012137809,
        -0.053163365,
        0.055733666,
        0.0435154,
        0.032095652,
        0.05278566,
        -0.06364572,
        -0.0035270047,
        -0.06290585,
        -0.0021025669,
        -0.08291735,
        0.056319542,
        0.0030072744,
        0.04762139,
        0.057682235,
        -0.0014938618,
        0.1438504,
        0.032838438,
        0.045249164,
        0.09304157,
        0.047628064,
        0.012787018,
        0.018965239,
        0.0034551143,
        -0.078687266,
        -0.030394837,
        -0.009339418,
        -0.058694553,
        -0.046794213,
        -0.058495365,
        -0.045582972,
        -0.076616526,
        -0.062239632,
        0.10794119,
        0.0450116,
        -0.098208256,
        0.04671937,
        -0.043310452,
        0.04370061,
        -0.0008927953,
        0.05795308,
        0.026495717,
        0.1300705,
        0.0067711296,
        0.0113116745,
        -0.03486932,
        -0.026000993,
        0.07156423,
        0.049162574,
        0.08925266,
        0.07506873,
        0.10598065,
        -0.026600424,
        0.0630391,
        0.013786195,
        0.057390433,
        -0.039201148,
        -0.02525807,
        -0.0049487934,
        0.0772447,
        -0.05286563,
        0.007986545,
        0.06152097,
        -0.010129002,
        0.031498726,
        0.009315839,
        0.06685922,
        0.07811067,
        0.01794984,
        -0.035615727,
        -0.02453223,
        0.09467752,
        0.077687874,
        0.075661674,
        -0.043109752,
        0.0087892935,
        0.09405919,
        -0.0071425,
        -0.017040579,
        -0.0632497,
        0.022115925,
        -0.040878218,
        0.07131276,
        -0.0049316357,
        -0.047186498,
        -0.07582981,
        -0.060733274,
        -0.058348466,
        0.053339064,
        -0.000635248,
        0.06589227,
        0.0442218,
        0.011673255,
        0.05103964,
        -0.03265342,
        0.10890814,
        -0.027790913,
        0.03884993,
        0.010548559,
        -0.0019746663,
        -0.029564565,
        0.08636722,
        0.08601477,
        -0.018477418,
        0.04144876,
        0.07737768,
        0.0006085755,
        -0.07276686,
        -0.06737477,
        0.0011328087,
        -0.042501293,
        -0.03179985,
        -0.056926467,
        -0.041481588,
        0.023616184,
        0.021697868,
        -0.05895968,
        0.027673047,
        0.043418318,
        0.016795086,
        -0.03784096,
        -0.042063877,
        -0.06679762,
        -0.063172005,
        0.06043903,
        0.059343226,
        0.03977386,
        0.02591268,
        0.08359715,
        0.015272753,
        -0.025185429,
        -0.032649793,
        -0.030102089,
        -0.052853405,
        -0.017345076,
        -0.027283419,
        -0.051250692,
        -0.0066194306,
        0.035575785,
        -0.06578682,
        0.04207915,
        0.06150568,
        -0.075259574,
        -0.04481263,
        0.048244756,
        0.0014967463,
        -0.07859283,
        0.08000917,
        0.006127194,
        -0.00059715024,
        0.037279762,
        0.060400445,
        0.054906134,
        0.023729729,
        0.057433862,
        -0.06902766,
        0.06531506,
        0.028635759,
        0.043915052,
        -0.050238993,
        0.06874411,
        0.026957842,
        0.0024705122,
        0.05307523,
        0.04548721,
        -0.012329173,
        -0.05386104,
        0.05272522,
        -0.059041023
      ],
      [
        0.00670749,
        -0.00663724,
        -0.018687073,
        0.02302256,
        -0.03660617,
        -0.07835703,
        0.028388366,
        -0.03187463,
        -0.019116402,
        -0.014523065,
        0.010664387,
        0.02000657,
        0.014063498,
        0.022325817,
        -0.064654976,
        0.038778007,
        0.025703337,
        -0.04695017,
        0.021727847,
        0.012655884,
        -0.03386952,
        -0.054477002,
        0.0613353,
        0.04310361,
        -0.07082062,
        0.050213188,
        -0.06912796,
        -0.071865804,
        0.05588464,
        0.04802075,
        0.074726775,
        0.013598376,
        -0.03749116,
        -0.0035243272,
        0.051269904,
        -0.050542407,
        -0.009581025,
        -0.018064672,
        0.0014151789,
        -0.0561072,
        -0.045132827,
        -0.059654422,
        0.0022446366,
        0.042290043,
        0.0055047544,
        -0.05699261,
        -0.07223076,
        0.008271142,
        0.00065004366,
        0.050730485,
        -0.06346247,
        0.021422056,
        -0.010983687,
        0.073483944,
        -0.067598194,
        -0.006606578,
        -0.023649162,
        0.0052277697,
        0.027029915,
        -0.022877181,
        0.055180352,
        0.06852698,
        0.028510595,
        -0.041235257,
        0.0828488,
        -0.030427204,
        -0.025251986,
        -0.035407506,
        -0.0061115297,
        -0.035154648,
        0.052110434,
        -0.067159645,
        0.01252969,
        0.043599267,
        0.02295324,
        -0.015973693,
        -0.041936494,
        0.009330219,
        -0.008936831,
        0.037670016,
        0.022048607,
        -0.06941984,
        -0.031351577,
        0.026369803,
        0.008284319,
        0.048738845,
        0.029909352,
        -0.077462465,
        -0.029294927,
        0.035908557,
        -0.05528999,
        -0.07486147,
        -0.018964492,
        0.028425124,
        0.012316953,
        -0.011587408,
        -0.047996625,
        -0.06220553,
        -0.061710507,
        -0.0335424,
        0.0803586,
        -0.024475424,
        -0.11384593,
        -0.028875,
        0.036602955,
        -0.015034088,
        -0.019887932,
        -0.05905866,
        -0.029972162,
        -0.067560956,
        0.078965396,
        0.044951066,
        0.05377657,
        0.012332139,
        -0.06470132,
        -0.044783197,
        0.005428677,
        -0.039244022,
        -0.054607324,
        -0.07460463,
        0.069000095,
        -0.04328455,
        0.01650645,
        0.08825141,
        0.03588243,
        0.009580477,
        0.020470222,
        -0.10368442,
        -0.07187946,
        -0.020995198,
        -0.09364466,
        -0.090200394,
        -0.104287334,
        0.036372244,
        -0.06233125,
        -0.061737645,
        0.0225847,
        0.01964862,
        0.059714116,
        0.029897122,
        0.026598986,
        0.044224087,
        0.04542784,
        -0.060722195,
        0.06579273,
        0.0460359,
        -0.047848925,
        0.00092893577,
        0.053865567,
        0.035802115,
        0.07282759,
        -0.02801443,
        -0.043758534,
        -0.015313577,
        -0.092707984,
        -0.08857669,
        -0.089928575,
        -0.13119897,
        -0.15293232,
        0.024678435,
        -0.049280733,
        -0.07552267,
        -0.10309167,
        -0.07903181,
        0.004164233,
        0.028064618,
        0.08478513,
        0.02385172,
        0.043202482,
        0.02514031,
        -0.060549334,
        0.045983706,
        0.080804564,
        0.05263842,
        -0.0076979804,
        -0.03784542,
        0.034227986,
        -0.019639205,
        0.078376666,
        0.058076117,
        0.001393796,
        0.048119206,
        -0.010491888,
        -0.077235445,
        -0.07094105,
        -0.086574025,
        0.02112381,
        0.03859763,
        -0.029291483,
        -0.035807677,
        -0.020283286,
        -0.03128245,
        -0.07896839,
        -0.0051525277,
        0.063026756,
        0.013342183,
        -0.076400764,
        0.062155344,
        0.02226195,
        0.0045140837,
        -0.026748803,
        0.108990505,
        0.020752523,
        -0.04176305,
        -0.044919886,
        0.058994934,
        0.03791788,
        -0.049224835,
        0.06959001,
        0.09882584,
        -0.03644926,
        -0.044678308,
        -0.15649243,
        -0.050474994,
        -0.08083356,
        0.034329433,
        0.03120156,
        -0.114584886,
        -0.027922228,
        -0.0060603665,
        -0.047670256,
        -0.0048839613,
        0.020244569,
        0.042954896,
        0.060374677,
        0.04109232,
        0.053171147,
        0.077813424,
        -0.011096928,
        0.015706662,
        0.03695522,
        -0.029167958,
        -0.04367423,
        -0.049778808,
        0.04514125,
        0.021351889,
        0.10545352,
        -0.035542272,
        -0.0034768528,
        0.04340878,
        0.025754888,
        0.0570927,
        0.0031534738,
        0.025747042,
        -0.055495743,
        -0.01960601,
        -0.097577885,
        -0.16012642,
        -0.09801595,
        0.025155168,
        -0.09956797,
        0.013961326,
        -0.061692584,
        -0.028300101,
        -0.021749508,
        -0.03233096,
        0.12767908,
        0.08776876,
        0.05634357,
        0.017576544,
        -0.094969094,
        0.031788964,
        -0.04244021,
        -0.012179473,
        -0.039252758,
        0.0034416637,
        -0.015029558,
        0.033355944,
        0.030120775,
        0.14557303,
        0.06600172,
        0.01674284,
        -0.0122836325,
        -0.10070168,
        -0.069400854,
        -0.1285082,
        -0.08134447,
        0.021329822,
        -0.029729655,
        0.0027727422,
        -0.037161898,
        0.059815753,
        0.0860769,
        -0.031454664,
        0.07594613,
        -0.057251144,
        -0.017613128,
        -0.00081222603,
        -0.039033793,
        -0.010301692,
        -0.06972419,
        -0.07994667,
        -0.14237021,
        -0.06704851,
        -0.06238123,
        -0.054600947,
        0.11581565,
        0.12778507,
        0.09558173,
        -0.040673245,
        -0.085476585,
        -0.12978117,
        -0.031054724,
        -0.03822125,
        -0.097635075,
        -0.077600986,
        -0.08077775,
        0.016609553,
        0.05559068,
        0.0133844325,
        0.06989762,
        0.08792277,
        -0.025201017,
        0.048799973,
        0.025116062,
        -0.055962954,
        0.06395285,
        -0.026046786,
        0.009863407,
        -0.066819765,
        -0.15821691,
        -0.02468748,
        0.075497426,
        -0.02562995,
        0.06572824,
        -0.0152890915,
        -0.010878911,
        -0.053973462,
        0.08634452,
        -0.04452296,
        -0.09214758,
        0.018384825,
        -0.04716343,
        -0.08794477,
        -0.006417201,
        0.01147511,
        0.0021290975,
        -0.067486055,
        0.021675048,
        0.033236694,
        -0.025523968,
        0.051073056,
        -0.10466823,
        -0.06281256,
        -0.09331822,
        -0.067625046,
        -0.11533797,
        -0.02755544,
        -0.072108895,
        0.002135905,
        0.13875921,
        0.061997242,
        0.019753646,
        0.004709148,
        -0.049354557,
        -0.038014844,
        -0.029559577,
        0.059462383,
        -0.022762567,
        0.03213862,
        -0.023702929,
        -0.011126222,
        -0.02102703,
        -0.018754924,
        -0.058995597,
        0.049174093,
        0.07229669,
        -0.047323845,
        0.023478586,
        0.009449959,
        0.09378069,
        -0.033904474,
        -0.11586439,
        -0.10396589,
        -0.16334829,
        0.015102566,
        0.031523556,
        0.058346692,
        0.0012303704,
        -0.024886105,
        -0.08785394,
        -0.033207573,
        0.08744186,
        0.043619182,
        0.1111316,
        -0.028912935,
        0.04692044,
        0.057937093,
        0.1311088,
        0.0034225541,
        0.007860406,
        -0.006942612,
        -0.072423436,
        -0.00417514,
        0.05107036,
        0.06008107,
        -0.021037046,
        0.0057401466,
        0.032575086,
        0.043806344,
        -0.026740974,
        -0.16224742,
        -0.004036977,
        0.025614964,
        0.04146345,
        0.07019131,
        -0.06325101,
        0.05285914,
        -0.08375573,
        -0.04080218,
        -0.1031163,
        0.067249276,
        -0.011322894,
        0.09255929,
        0.1027734,
        0.095533386,
        0.03974186,
        0.004936332,
        0.01929793,
        -0.039785206,
        -0.07701848,
        -0.052689984,
        -0.028425358,
        0.017068716,
        -0.07746256,
        0.042328596,
        -0.019976549,
        -0.06976757,
        -0.08267942,
        -0.1329098,
        -0.03244823,
        0.05512923,
        0.120724134,
        0.0652516,
        0.016115282,
        -0.037400205,
        0.0040005804,
        -0.11593895,
        0.027919637,
        0.11083968,
        0.031236952,
        -0.031245349,
        -0.0077676964,
        0.09206196,
        0.07066307,
        0.035637405,
        0.03581408,
        0.036553882,
        -0.067562036,
        -0.055190574,
        -0.058055427,
        0.06922732,
        0.08436155,
        0.029051198,
        -0.016614266,
        0.07409082,
        0.015838383,
        0.051810592,
        -0.003618426,
        0.17950532,
        0.113370456,
        -0.028046988,
        -0.008958212,
        -0.0061168373,
        -0.03370873,
        0.012799915,
        0.004778138,
        0.08859275,
        0.070162736,
        -0.009914152,
        0.06119703,
        0.059682347,
        0.0132632945,
        -0.0019549862,
        -0.03685966,
        0.053348497,
        0.033578362,
        0.07167366,
        0.076018654,
        -0.07516624,
        0.052064057,
        -0.005672488,
        -0.094142675,
        -0.065960094,
        -0.060269114,
        0.093715414,
        -0.0018310695,
        0.15072373,
        0.1090654,
        0.0784453,
        0.034600977,
        -0.11288735,
        -0.03747301,
        0.033965662,
        0.0016097861,
        -0.053263586,
        -0.049822193,
        0.047299396,
        0.1399906,
        0.119757615,
        0.04699358,
        -0.051848643,
        0.08171073,
        -0.067204624,
        0.023177529,
        0.080454856,
        0.022398848,
        0.005530756,
        0.09607278,
        -0.07097936,
        -0.14146413,
        -0.09239795,
        -0.017737113,
        0.0069400645,
        0.070809476,
        0.047733467,
        0.122090034,
        0.04834737,
        0.005624569,
        -0.10086518,
        -0.11549612,
        0.024013106,
        0.10110356,
        0.051129956,
        0.080602646,
        0.018983182,
        -0.012602389,
        -0.02589511,
        0.0106679965,
        0.014440633,
        -0.06295618,
        -0.06425281,
        0.02466784,
        0.07102648,
        -0.036597803,
        -0.06119785,
        -0.03786371,
        -0.00737574,
        -0.019520454,
        -0.095031984,
        -0.031371485,
        0.07081638,
        0.009523325,
        0.085354745,
        0.013693702,
        0.10808077,
        0.04191048,
        0.04600176,
        -0.06747261,
        -0.0041150143,
        -0.040839184,
        0.08180955,
        0.055375393,
        0.12703668,
        0.039770316,
        -0.03742214,
        -0.055023894,
        0.044618823,
        0.016953092,
        -0.05961797,
        0.025384514,
        0.016099758,
        0.0142687345,
        -0.06188836,
        0.0013374103,
        -0.01647307,
        -0.112470575,
        0.04835146,
        0.0046913866,
        -0.13521735,
        0.0027054034,
        -0.058048293,
        -0.019248664,
        -0.02096412,
        0.020324672,
        0.06923632,
        0.013622311,
        -0.05768068,
        -0.052599203,
        -0.095343925,
        0.07030409,
        0.06777171,
        0.019011123,
        -0.07500247,
        -0.11127859,
        0.0036425884,
        0.07258366,
        0.0208515,
        0.06921058,
        -0.013446277,
        0.0073634954,
        -0.0654974,
        0.06725648,
        0.00945122,
        0.0400292,
        -0.06484116,
        0.034529872,
        -0.09834819,
        -0.06318205,
        -0.030731922,
        -0.016686553,
        0.075119145,
        0.1461659,
        0.08883214,
        0.018460972,
        0.027286014,
        -0.03283833,
        -0.054348484,
        -0.009553808,
        0.03674969,
        0.0131510375,
        -0.07494305,
        -0.115711674,
        0.024041627,
        -0.0390905,
        0.02736756,
        -0.016830279,
        0.002398955,
        0.04306672,
        -0.066927984,
        -0.06660336,
        -0.059622906,
        -0.056507878,
        -0.031314526,
        -0.04610116,
        -0.10225072,
        -0.18973804,
        -0.17790733,
        -0.034863953,
        0.07427689,
        0.02703534,
        0.10678636,
        0.096867435,
        -0.038075108,
        -0.09538412,
        0.025930315,
        -0.029913345,
        -0.092357256,
        -0.022324396,
        -0.06273432,
        -0.025065882,
        0.018860824,
        -0.046631612,
        -0.009978956,
        -0.07089942,
        -0.0065973215,
        -0.019341217,
        0.03519138,
        0.009026147,
        -0.059485484,
        -0.041444954,
        0.036692172,
        0.03329,
        0.01402062,
        -0.11042212,
        -0.13320644,
        0.023126712,
        0.029341439,
        0.04944427,
        0.008713834,
        0.05557934,
        0.10450334,
        0.049058918,
        -0.05160045,
        0.04614677,
        -0.116691254,
        -0.13950194,
        -0.04103574,
        -0.015381179,
        -0.07384836,
        0.005646175,
        0.03564825,
        0.021396149,
        -0.018504295,
        0.051229373,
        -0.014130507,
        -0.05185753,
        0.007827567,
        -0.009589364,
        0.04782842,
        -0.011057591,
        0.058197934,
        -0.026592746,
        -0.0066258744,
        0.010487771,
        0.04461682,
        0.038206562,
        0.007437596,
        -0.024420213,
        -0.049135935,
        -0.03739302,
        -0.15242296,
        -0.0915789,
        -0.00300105,
        0.035325255,
        -0.031353205,
        0.06415407,
        0.002310159,
        0.027113305,
        0.034005754,
        0.023737734,
        -0.023432722,
        0.029611455,
        0.019219408,
        -0.0026012247,
        0.0949583,
        -0.040206473,
        0.0034008238,
        0.034297846,
        0.109966315,
        -0.00039659906,
        0.023021922,
        -0.028116796,
        -0.031112766,
        0.023026379,
        -0.049673826,
        -0.025721004,
        -0.0602801,
        -0.05531492,
        -0.020337766,
        -0.020874133,
        -0.005325138,
        -0.057147034,
        0.04771324,
        0.06411003,
        -0.055183206,
        -0.063789874,
        0.03866977,
        0.07751724,
        0.07020096,
        -0.014967698,
        -0.041161433,
        0.003134183,
        -0.0146352,
        -0.009282235,
        -0.073068604,
        0.07110224,
        0.0018319214,
        0.024417816,
        -0.12585287,
        -0.02355571,
        0.049797438,
        0.058747564,
        0.016894601,
        0.03967857,
        -0.04645003,
        0.0021312854,
        0.046355437,
        0.008278277,
        -0.055503745,
        0.052419256,
        0.041049343,
        0.023157468,
        -0.056993615,
        0.07767826,
        0.07084616,
        0.040837903,
        -0.037108395,
        -0.06880618,
        -0.05582242,
        -0.006978004,
        0.023294596,
        -0.033009112,
        -0.04687628,
        0.070237406,
        -0.028695736,
        0.08555766,
        0.022430459,
        0.039809458,
        0.07267295,
        -0.055915054,
        0.009128708,
        0.020655997,
        -0.04749975,
        0.046668854,
        -0.03909868,
        0.0630614,
        -0.01820241,
        -0.02444595,
        -0.061168768,
        -0.06931557,
        -0.03516712,
        -0.054833114,
        -0.042933766
      ],
      [
        0.061833546,
        -0.078148305,
        0.008348272,
        -0.008330991,
        -0.07995162,
        0.012541194,
        0.040605426,
        0.021045132,
        0.018636443,
        0.041852746,
        -0.031831373,
        0.05123532,
        -0.07015808,
        0.03986971,
        -0.023958776,
        -0.030462192,
        -0.04521281,
        -0.039055467,
        -0.03374254,
        -0.06485432,
        0.0067173736,
        -0.02597808,
        0.06563553,
        0.061235964,
        -0.037836164,
        0.01101944,
        0.08094572,
        0.029288461,
        -0.04863492,
        -0.010913808,
        0.031167783,
        0.072245754,
        -0.03425189,
        -0.057113744,
        -0.024843873,
        0.043177728,
        -0.021854188,
        -0.00064648536,
        -0.023964178,
        -0.056059886,
        0.010802767,
        0.054470126,
        -0.047934063,
        -0.04305294,
        0.0271688,
        0.022330936,
        0.06949652,
        0.061133314,
        0.009796197,
        0.027912714,
        0.015152069,
        -0.009259197,
        0.043244164,
        -0.06752997,
        -0.048189037,
        -0.048299965,
        0.014172254,
        -0.01811427,
        -0.07350218,
        0.04329326,
        -0.028902395,
        -0.03710642,
        -0.07922188,
        -0.02140945,
        0.037244372,
        -0.07638322,
        -0.034889895,
        0.029988524,
        0.051500168,
        0.008769715,
        0.1445272,
        0.049198937,
        0.01475111,
        0.07739818,
        0.07319862,
        0.083257794,
        0.087063424,
        0.0774729,
        -0.04882416,
        0.029665632,
        0.07846412,
        -0.07090043,
        -0.063860364,
        -0.023366963,
        0.06387292,
        -0.022540683,
        0.07901981,
        0.07564309,
        0.04308388,
        0.035423886,
        0.0031958278,
        -0.052692782,
        -0.038530953,
        0.018371044,
        -0.08194003,
        0.0019173443,
        -0.087389365,
        -0.027294531,
        0.110685684,
        0.0074347197,
        0.03436657,
        0.033009004,
        0.103977844,
        0.06632439,
        -0.025485866,
        0.05372345,
        0.013518326,
        0.028036749,
        -0.04028891,
        0.012434672,
        0.02051873,
        0.06825529,
        -0.004454035,
        -0.07828321,
        -0.047439337,
        0.05014586,
        0.016965803,
        0.02882761,
        -0.04095629,
        0.00024052158,
        -0.041989278,
        -0.055124372,
        -0.029521769,
        -0.051366337,
        0.015509973,
        0.08286043,
        -0.046596818,
        -0.02924963,
        0.09561374,
        0.02019878,
        0.0137719335,
        0.0583926,
        0.04183171,
        0.009451875,
        -0.046975385,
        -0.07127105,
        0.045981787,
        -0.08210469,
        -0.042986408,
        0.05614539,
        -0.060644697,
        0.033907816,
        0.03759291,
        -0.072793625,
        0.036783863,
        -0.018599287,
        -0.03829286,
        -0.06536112,
        -0.082004435,
        0.034390125,
        -0.033780508,
        0.1052203,
        0.068665884,
        0.0205958,
        -0.08131499,
        0.039334413,
        0.005395381,
        -0.027246198,
        0.0011882902,
        -0.038124233,
        0.029556142,
        -0.06469385,
        -0.002394138,
        -0.046224665,
        -0.11107719,
        -0.021374252,
        -0.042198148,
        -0.07820648,
        0.066538036,
        0.04219351,
        -0.038505223,
        0.034751583,
        0.025817294,
        0.06060002,
        -0.04378483,
        -0.03279497,
        -0.059213605,
        -0.07163899,
        -0.08292956,
        0.094166756,
        0.12569992,
        0.03735777,
        -0.0058649187,
        -0.05890235,
        0.064467475,
        -0.05417559,
        -0.049207885,
        -0.015102085,
        -0.024302151,
        -0.045855563,
        0.03299192,
        -0.0014793039,
        -0.015749611,
        -0.097765714,
        0.0358249,
        0.038624924,
        0.06561818,
        0.017839873,
        -0.043415908,
        -0.042448927,
        -0.0035347699,
        -0.02473899,
        -0.13287318,
        -0.027103104,
        -0.057759695,
        -0.089197025,
        -0.037240468,
        -0.034983873,
        0.124921,
        0.051286712,
        -0.055207692,
        0.042476475,
        0.058234874,
        -0.020331403,
        -0.072789386,
        -0.02854802,
        -0.036616623,
        -0.024070762,
        -0.07868786,
        0.04816454,
        -0.037937716,
        -0.01598858,
        -0.05472484,
        0.064747415,
        0.0028598348,
        -0.05239181,
        0.05072631,
        0.04224018,
        -0.006486228,
        -0.09756442,
        -0.12179719,
        -0.048030373,
        -0.100590564,
        -0.06905055,
        0.034314882,
        0.026782835,
        0.09568318,
        0.021477852,
        -0.058223344,
        -0.061767925,
        -0.054488745,
        -0.06589503,
        -0.14058028,
        -0.13237867,
        -0.15278257,
        0.07144101,
        -0.1322058,
        -0.04286397,
        0.039585117,
        -0.022594567,
        -0.022518292,
        0.008693634,
        -0.0030745754,
        0.06853408,
        0.036208645,
        0.06039616,
        0.014338328,
        -0.116018854,
        -0.045878474,
        -0.08529162,
        -0.11600176,
        0.021771267,
        0.027716802,
        0.10626101,
        0.057994142,
        0.02494658,
        0.031539876,
        -0.058078937,
        0.022076327,
        -0.049566224,
        -0.041833602,
        -0.105207875,
        -0.07541279,
        -0.033038113,
        -0.083570935,
        -0.07945986,
        0.023323365,
        -0.0020700009,
        -0.05532141,
        -0.0031623535,
        0.068134196,
        0.07904274,
        -0.04039187,
        -0.060301397,
        -0.09130629,
        -0.12924491,
        -0.032381237,
        -0.048993938,
        -0.1301545,
        -0.0013434585,
        0.09313369,
        0.062450573,
        -0.010672004,
        0.023130417,
        -0.043187205,
        0.013768317,
        -0.06772171,
        -0.033302985,
        -0.079132184,
        -0.1260701,
        -0.014218566,
        0.013065683,
        -0.051194932,
        0.0052260966,
        -0.07355842,
        -0.12140841,
        -0.061256845,
        0.031279217,
        -0.003188363,
        -0.044917222,
        0.06198212,
        -0.029295845,
        0.018589813,
        -0.021009477,
        -0.15035373,
        -0.08430559,
        0.08878744,
        0.018522058,
        0.022732241,
        0.073463954,
        0.074526206,
        -0.028865442,
        -0.040282853,
        0.10528116,
        0.018552184,
        -0.005376513,
        0.0024832794,
        -0.02499257,
        0.083992615,
        -0.03345649,
        -0.0030841806,
        -0.12376216,
        -0.058088135,
        -0.065792084,
        -0.0051412154,
        -0.03171286,
        0.024372572,
        0.02938113,
        -0.033754967,
        -0.05779831,
        -0.045743726,
        -0.07113373,
        -0.051813386,
        -0.035193987,
        0.02460377,
        0.023024425,
        0.03260094,
        0.15589553,
        -0.0039093657,
        0.013910974,
        0.060736336,
        -0.043945193,
        0.0641412,
        -0.0018155471,
        0.05641856,
        0.013597529,
        -0.040528845,
        0.027229194,
        -0.01846509,
        0.027646895,
        -0.041400436,
        0.010957093,
        0.01723035,
        -0.046265695,
        0.079981714,
        0.020014822,
        -0.07836344,
        -0.010987779,
        0.0064239493,
        -0.009519276,
        -0.120684974,
        -0.033032782,
        0.04323647,
        -0.13045199,
        0.041701667,
        0.075771905,
        0.03606295,
        -0.0013640178,
        -0.09590013,
        0.0091615645,
        0.0861846,
        0.031743232,
        0.056316078,
        -0.0127110295,
        0.11300308,
        0.07644511,
        0.061012298,
        -0.038112387,
        -0.06370577,
        -0.023344893,
        0.046366725,
        -0.05181505,
        -0.077237114,
        -0.03560914,
        -0.053881936,
        0.05911325,
        -0.028684314,
        -0.09634182,
        -0.0664743,
        0.0038638725,
        0.00945563,
        -0.010701103,
        0.0135798305,
        -0.05870594,
        -0.07554474,
        0.00705465,
        0.025578465,
        0.09024752,
        0.05642725,
        0.024722485,
        0.030474145,
        0.043983366,
        0.015412872,
        0.029981913,
        0.042312928,
        -0.031667512,
        -0.028852267,
        -0.047481924,
        -0.07442807,
        0.031061627,
        -0.051476557,
        0.045081865,
        0.06251769,
        0.01887804,
        -0.020015854,
        -0.08052324,
        -0.05031274,
        -0.01858065,
        0.06921979,
        0.049479455,
        0.11904098,
        -0.15493247,
        -0.05259792,
        -0.011999449,
        0.015268114,
        0.085375875,
        0.07878384,
        -0.031231798,
        -0.09435095,
        0.08128938,
        0.024537798,
        0.007066683,
        0.10168193,
        0.07116289,
        0.03099604,
        0.049866334,
        0.003708622,
        -0.033016346,
        0.07343357,
        -0.001413299,
        -0.07179055,
        0.037545618,
        -0.07936778,
        -0.018970031,
        -0.03045837,
        -0.06232558,
        0.028436346,
        0.032682322,
        0.09977014,
        -0.024176411,
        -0.0022706317,
        0.05311846,
        -0.011684645,
        0.07834683,
        0.16833647,
        -0.07003903,
        0.057425555,
        0.06169618,
        0.109950796,
        0.016706144,
        0.01484291,
        0.035797834,
        -0.014318452,
        -0.03865428,
        -0.07408978,
        0.023133079,
        0.054800328,
        -0.03753466,
        -0.043446224,
        -0.070611686,
        -0.031580593,
        -0.061954994,
        -0.041215934,
        -0.046562057,
        0.06842019,
        0.03822313,
        -0.08391947,
        -0.05050741,
        -0.056550622,
        0.01215019,
        0.1819504,
        0.102933556,
        0.060937606,
        -0.036901355,
        -0.06636167,
        -0.054276615,
        0.057798676,
        0.069804356,
        0.0054362332,
        0.007639394,
        -0.051962614,
        0.087163605,
        0.054844324,
        -0.06770701,
        -0.04533532,
        -0.0047022654,
        0.06135712,
        -0.059037384,
        -0.005841581,
        -0.0048813727,
        0.032347444,
        0.056002937,
        -0.09443501,
        0.026541086,
        -0.11052673,
        -0.021104932,
        0.07698095,
        0.13996202,
        0.106235914,
        -0.018001996,
        0.044989053,
        -0.088307075,
        0.073857345,
        0.064934656,
        0.046419915,
        0.035853513,
        -0.038388286,
        0.044067923,
        0.0966708,
        -0.013536233,
        0.005747898,
        -0.06319465,
        0.017686395,
        -0.010175379,
        -0.075625196,
        0.05570568,
        -0.06252023,
        0.007985077,
        -0.023732197,
        0.010948673,
        0.007602417,
        -0.067424074,
        -0.09412315,
        0.06927442,
        0.01216833,
        -0.0828983,
        0.11076184,
        -0.0458819,
        -0.16093855,
        -0.11960891,
        -0.025543535,
        -0.005069499,
        0.0011213715,
        0.0664257,
        -0.064761676,
        -0.052690864,
        -0.037738364,
        -0.06460589,
        0.077692136,
        -0.048140235,
        -0.038344283,
        -0.061376456,
        -0.067795716,
        0.01631015,
        -0.042884257,
        -0.06481368,
        -0.07695625,
        -0.067340575,
        -0.09470039,
        -0.003896963,
        -0.12673315,
        0.09632763,
        0.08377683,
        0.03696062,
        0.06936285,
        0.03777493,
        -0.09015772,
        -0.0053675477,
        -0.013856214,
        -0.12584399,
        0.052416246,
        0.027263274,
        -0.008121135,
        -0.085045286,
        -0.071124665,
        -0.037595637,
        -0.0658422,
        0.045954432,
        0.003670379,
        0.06732073,
        0.07521528,
        0.044552576,
        -0.06065692,
        0.069676556,
        -0.04012103,
        -0.022153432,
        -0.093704335,
        -0.08066612,
        0.052170563,
        -0.004090432,
        -0.0071435776,
        0.040911064,
        -0.014736275,
        -0.02737228,
        -0.026686063,
        -0.0072518135,
        -0.04690922,
        -0.1511217,
        -0.06730423,
        -0.07049768,
        -0.014395726,
        -0.09719573,
        0.040446784,
        0.043425776,
        0.026553236,
        0.066015646,
        -0.030452874,
        0.043420833,
        0.032397963,
        0.028989311,
        0.012169112,
        0.07251568,
        -0.06986618,
        0.018848523,
        -0.05441975,
        -0.024657995,
        -0.12252749,
        -0.016824357,
        -0.04400855,
        -0.11588756,
        -0.12028103,
        0.004474397,
        0.11030134,
        -0.0096299,
        -0.03415148,
        -0.11920912,
        -0.050041195,
        -0.10545365,
        -0.032780685,
        -0.04611005,
        0.054409612,
        -0.031087704,
        0.028330449,
        -0.000897813,
        0.036822774,
        -0.038981333,
        -0.009886089,
        0.058309004,
        -0.021120792,
        -0.053902067,
        0.052771777,
        0.023257695,
        -0.056436963,
        0.054141864,
        0.06072477,
        0.050833505,
        -0.082550265,
        -0.065226786,
        0.01525007,
        -0.21709368,
        0.005090146,
        0.03917333,
        -0.10237538,
        -0.04711822,
        -0.060525488,
        -0.003726433,
        0.04075257,
        0.011733226,
        -0.0061598,
        0.013375893,
        -0.026980769,
        -0.06260889,
        -0.08039286,
        -0.043940682,
        0.030480862,
        -0.0354685,
        -0.0037384415,
        0.06585025,
        -0.023787823,
        0.08601443,
        0.0055753086,
        0.012341862,
        0.09366438,
        0.030226909,
        -0.060914416,
        -0.10201545,
        -0.08334197,
        -0.1336747,
        -0.0615066,
        -0.11037017,
        -0.037969824,
        -0.06814492,
        -0.095392585,
        -0.061862364,
        -0.04627967,
        -0.012658759,
        0.049933318,
        -0.0032864192,
        0.056554597,
        0.06874575,
        -0.073282376,
        0.06969782,
        0.006518472,
        -0.077316634,
        -0.06913696,
        0.0040144613,
        0.10239378,
        -0.058583956,
        0.08158927,
        -0.02823284,
        0.05243705,
        0.0011991196,
        -0.07478876,
        0.006639153,
        0.0514852,
        -0.038026754,
        0.018369325,
        -0.03723312,
        0.011882413,
        -0.027873691,
        -0.03934805,
        -0.04479076,
        0.066697866,
        0.008292033,
        -0.0466903,
        -0.01728311,
        -0.009619481,
        -0.065835886,
        -0.04540949,
        0.07991595,
        -0.07712212,
        -0.06143119,
        -0.060224637,
        0.02882182,
        0.08980196,
        0.061358567,
        -0.0042775357,
        -0.06011518,
        -0.08301135,
        0.026787393,
        -0.11715721,
        -0.042962268,
        -0.078341275,
        -0.09982574,
        -0.04332625,
        -0.055866618,
        -0.035806805,
        0.046819106,
        0.046601526,
        -0.033225827,
        -0.066776045,
        -0.019800683,
        0.066855945,
        0.07089747,
        0.010462168,
        0.0012324207,
        0.022863498,
        -0.008196866,
        -0.019111115,
        0.040953394,
        0.07385797,
        0.022055088,
        -0.0107499035,
        0.058814015,
        -0.043197237,
        -0.081380546,
        -0.0007566511,
        0.03314196,
        -0.082336575,
        -0.057808947,
        -0.05719755,
        0.030249534,
        0.028373519,
        0.05829934,
        -0.08031664,
        0.03061006,
        0.055977266,
        -0.0035263838,
        0.06813703,
        -0.051747933,
        0.019293088,
        -0.07665332,
        0.052749783,
        0.021029819
      ],
      [
        -0.00986714,
        -0.020417517,
        0.03349177,
        0.026950138,
        0.008022722,
        0.0654622,
        -0.022510873,
        0.07655085,
        0.06725313,
        -0.013818612,
        0.054986034,
        -0.064855225,
        0.036329955,
        0.07378083,
        0.014898821,
        -0.012086924,
        -0.027431935,
        -0.049164962,
        0.071248904,
        -0.05395869,
        -0.072318286,
        -0.024473198,
        0.07841207,
        -0.038677286,
        0.07803251,
        0.069171205,
        0.072739966,
        0.026481304,
        0.07790113,
        -0.04930694,
        0.029255942,
        0.07680001,
        0.019034194,
        0.025584241,
        -0.0415482,
        -0.03757665,
        -0.07076482,
        0.030556185,
        -0.005068023,
        0.035197016,
        -0.069860786,
        0.015251267,
        0.0016755754,
        0.00467469,
        0.021655712,
        0.01837933,
        0.0041603083,
        0.056944277,
        -0.033031482,
        -0.049421765,
        -0.06442066,
        -0.0035755793,
        -0.07152554,
        -0.029799702,
        -0.031212023,
        -0.05567556,
        0.0074962243,
        0.013160921,
        -0.007499739,
        0.01779198,
        -0.06351142,
        0.014708929,
        -0.068443716,
        -0.0022755477,
        -0.026506482,
        -0.071496874,
        -0.07939944,
        -0.07554797,
        -0.03581179,
        -0.06361956,
        -0.055115946,
        0.04509476,
        0.0384118,
        -0.02873872,
        0.035877306,
        0.037154745,
        -0.045303795,
        0.03337438,
        -0.0068875845,
        0.057916686,
        0.06524152,
        0.046257034,
        0.057653297,
        -0.0643094,
        -0.039599106,
        0.013104732,
        0.026690088,
        -0.031715937,
        -0.025936376,
        -0.024126949,
        0.060640138,
        0.01774522,
        -0.08032864,
        0.042898957,
        0.030578997,
        -0.0259304,
        -0.056131,
        0.013102116,
        0.018845323,
        0.016653055,
        0.0049012317,
        0.032253593,
        0.05981589,
        -0.024749504,
        0.061784375,
        0.09601516,
        -0.011957363,
        0.030914983,
        -0.028113747,
        -0.026526157,
        0.057887577,
        0.046576776,
        0.03972665,
        0.05539028,
        0.049353626,
        0.040470902,
        0.0035841255,
        -0.07442933,
        -0.048947547,
        -0.036779683,
        -0.15616147,
        -0.061341316,
        0.036677852,
        -0.015151433,
        0.0017944293,
        0.10992564,
        0.08174039,
        -0.0048958734,
        0.10074779,
        0.024046665,
        -0.02810375,
        0.07003446,
        0.036054093,
        0.05195959,
        0.040159497,
        -0.031126792,
        0.04244183,
        0.069072284,
        0.0042392537,
        0.05138697,
        -0.08023369,
        -0.0023680183,
        0.038089745,
        -0.042961758,
        -0.06409549,
        0.05596024,
        -0.037452567,
        -0.10526928,
        0.032104302,
        0.037107013,
        -0.051049955,
        0.12959586,
        -0.0042974735,
        -0.015431403,
        0.057773944,
        0.040823836,
        0.2070748,
        0.044062253,
        0.0164967,
        -0.022759607,
        -0.018904405,
        0.13382046,
        0.032886807,
        0.047632236,
        0.026127525,
        -0.0067943935,
        0.020907702,
        0.02822066,
        -0.06880635,
        -0.067159526,
        0.038995616,
        0.0050907345,
        -0.04331758,
        0.051087372,
        0.056207493,
        -0.009043475,
        0.013630887,
        -0.03030718,
        0.07055613,
        0.17400976,
        0.060893897,
        0.023442054,
        -0.121691264,
        -0.06569561,
        0.1073283,
        0.09066106,
        -0.0768624,
        -0.071730085,
        -0.09016317,
        -0.1119927,
        0.03430932,
        0.08492602,
        0.0118398825,
        -0.0105624935,
        0.02851182,
        0.03252565,
        0.009906066,
        -0.026905723,
        0.05067077,
        0.03065691,
        0.024545575,
        -0.023385784,
        -0.016327918,
        0.04846965,
        0.010343526,
        0.04346597,
        0.06396071,
        0.21301177,
        0.07035718,
        -0.15295741,
        -0.070662156,
        -0.04439184,
        -0.011299352,
        -0.008421359,
        0.085572585,
        -0.057068076,
        0.016511431,
        -0.032824118,
        0.0029196497,
        0.17094384,
        0.018122159,
        0.06399164,
        0.046832822,
        0.080721736,
        -0.05347537,
        0.061429568,
        0.05083684,
        -0.042508107,
        0.0004443256,
        0.04052866,
        -0.052380726,
        0.036409084,
        -0.083518416,
        0.022845946,
        0.13825577,
        0.15991154,
        0.077734254,
        -0.117688775,
        -0.081832275,
        -0.094788976,
        0.025827866,
        0.05803438,
        0.042980168,
        -0.04369935,
        0.007951225,
        0.022567896,
        0.0023351857,
        0.15241666,
        0.11256926,
        0.08410103,
        0.06236596,
        -0.01654298,
        -0.06784595,
        -0.061199486,
        0.067574665,
        -0.055343535,
        0.024473123,
        -0.0882049,
        0.051571917,
        0.030590452,
        -0.11856438,
        0.09448695,
        0.10435958,
        0.19320486,
        0.07796742,
        -0.06893082,
        -0.085204,
        -0.13416941,
        0.12472565,
        -0.034085866,
        -0.030299151,
        0.0023594545,
        -0.053407975,
        0.043681428,
        0.06432286,
        0.12358676,
        0.00039676804,
        0.03233833,
        -0.0033988312,
        0.02974038,
        -0.06945054,
        -0.05155522,
        0.029258518,
        -0.04505459,
        -0.02768447,
        0.007972966,
        0.05413008,
        0.019389305,
        -0.039388668,
        0.0030683987,
        0.17490877,
        0.17973411,
        0.19333544,
        -0.018035328,
        -0.14143443,
        -0.042752396,
        0.005323221,
        -0.012584691,
        -0.035876174,
        0.0033644447,
        0.05169652,
        -0.014302681,
        0.032273956,
        0.03577712,
        -0.020136053,
        0.060267955,
        0.05602516,
        -0.024825275,
        0.06064056,
        -0.06472229,
        0.015292011,
        0.019628704,
        0.0023513502,
        -0.034278695,
        0.03483314,
        -0.0025489284,
        0.004149149,
        -0.07179669,
        0.06986727,
        0.112780854,
        0.05463411,
        -0.14286856,
        -0.13288885,
        0.0071643367,
        -0.050735965,
        0.079218924,
        -0.016157255,
        0.10849126,
        -0.08463041,
        -0.08749502,
        -0.035288043,
        -0.017482113,
        -0.036726583,
        0.06075261,
        0.12276137,
        -0.056644782,
        0.042770643,
        -0.06602792,
        0.0027704423,
        0.08547344,
        0.06471335,
        0.0400277,
        0.043872476,
        0.10531272,
        -0.025716046,
        0.05585194,
        0.07007991,
        0.092118904,
        -0.01641364,
        -0.07577102,
        -0.12064028,
        -0.13950995,
        -0.04024919,
        0.023673926,
        -0.083084196,
        -0.043909486,
        -0.053303137,
        -0.058483303,
        -0.07776619,
        -0.032117486,
        0.013018178,
        -0.028128926,
        -0.05248649,
        -0.020103037,
        -0.04638121,
        -0.07080003,
        -0.055865534,
        -0.077819295,
        -0.06533596,
        0.10713228,
        0.06307556,
        0.018525535,
        -0.028460007,
        0.16108829,
        0.14373408,
        0.0046116896,
        -0.005291982,
        -0.10651581,
        -0.06531136,
        -0.09906935,
        -0.12875302,
        -0.107486665,
        0.007929044,
        -0.079890035,
        -0.043656494,
        0.07052553,
        -0.02547778,
        -0.03694345,
        0.03851457,
        -0.032788932,
        -0.03883249,
        0.028143007,
        -0.04396942,
        0.04561616,
        -0.052446757,
        0.0006275467,
        -0.044743694,
        0.040399574,
        0.040469404,
        0.070041515,
        0.022106754,
        0.1066769,
        0.05975233,
        0.075084634,
        -0.014591694,
        -0.07154141,
        -0.038839318,
        -0.14150164,
        -0.12731397,
        0.02310552,
        0.120825015,
        0.06315945,
        0.06829162,
        0.022294618,
        0.048755694,
        0.057506762,
        -0.0031205802,
        -0.02530651,
        0.04080695,
        -0.0066297823,
        -0.051954437,
        -0.042300176,
        0.027303988,
        -0.042429198,
        0.069645435,
        -0.04412885,
        -0.010602115,
        -0.08476748,
        0.03251497,
        0.13835451,
        0.15114021,
        0.16499783,
        0.17429705,
        -0.012191158,
        0.06884916,
        -0.1516811,
        0.00922516,
        0.038054947,
        -0.005395797,
        -0.030238902,
        -0.085207395,
        0.032156162,
        0.106255926,
        0.040449124,
        0.007208116,
        0.022839505,
        0.01700794,
        -0.06240517,
        -0.01647902,
        0.07628013,
        0.0063091395,
        -0.04095821,
        0.039680794,
        0.041075595,
        -0.10753471,
        -0.036452536,
        -0.009719125,
        0.071175344,
        0.09470211,
        0.05457902,
        0.02014289,
        -0.054411996,
        0.011244717,
        -0.09344157,
        0.04264507,
        -0.048564557,
        -0.0155665865,
        0.14523809,
        0.006264382,
        0.01449376,
        0.098377064,
        -0.07357433,
        0.063920245,
        0.027171345,
        0.040535145,
        0.04649962,
        0.050313964,
        0.013394343,
        0.038380515,
        0.063053034,
        -0.005397588,
        0.014472002,
        -0.01904171,
        -0.14976305,
        -0.13869488,
        -0.039396107,
        0.017846284,
        0.05933343,
        0.10426656,
        0.029917859,
        -0.009726781,
        -0.120880604,
        -0.07967436,
        -0.00031960502,
        0.10728012,
        -0.08042077,
        -0.08655356,
        0.037650123,
        0.12665628,
        0.025204068,
        -0.005902269,
        -0.07913167,
        0.041971598,
        0.057093006,
        0.031902023,
        0.057267487,
        -0.061943386,
        -0.062177736,
        0.03296328,
        0.054652896,
        -0.038766388,
        -0.10693503,
        -0.059827752,
        -0.020003915,
        0.111008346,
        0.04299211,
        0.087421894,
        0.0419677,
        -0.07411447,
        -0.009117267,
        -0.039614238,
        -0.15586713,
        0.028676437,
        -0.028054887,
        0.006454629,
        -0.027627824,
        -0.01775841,
        -0.030224465,
        -0.036136523,
        0.068257876,
        -0.02240671,
        -0.040843807,
        0.034445208,
        0.019843416,
        0.052204598,
        -0.02884892,
        -0.023590349,
        -0.03223626,
        0.025710257,
        0.09821286,
        -0.014040914,
        -0.0058331755,
        0.053003334,
        0.058478,
        0.08084677,
        0.03954277,
        -0.050038185,
        -0.0740169,
        -0.07235068,
        -0.074610166,
        0.026100243,
        -0.046174057,
        -0.018369293,
        0.07699374,
        0.026483724,
        -0.026447361,
        -0.015410339,
        -0.057187844,
        -0.06383546,
        -0.060462177,
        -0.06366375,
        -0.058065165,
        0.060755864,
        0.06992669,
        0.054536242,
        -0.078863375,
        -0.07459297,
        -0.0484514,
        0.01745799,
        -0.045843486,
        0.10439735,
        0.0128132,
        0.13264358,
        0.09100405,
        -0.048302338,
        0.026441472,
        -0.049705602,
        0.06842698,
        -0.050105978,
        0.090621896,
        -0.102930985,
        -0.029003793,
        -0.0088965185,
        0.01519679,
        -0.08645442,
        0.030033339,
        -0.067293234,
        -0.005028002,
        -0.053553652,
        -0.030417351,
        0.073718116,
        0.069054045,
        -0.045094654,
        -0.07502811,
        -0.036184635,
        -0.04479707,
        0.09552723,
        0.11723427,
        -0.034619838,
        -0.0076976344,
        0.04309367,
        -0.021297114,
        0.020142099,
        0.025797015,
        -0.0686704,
        -0.020024199,
        0.029565271,
        -0.08649391,
        -0.00021911025,
        0.009663964,
        -0.04428823,
        -0.014304231,
        -0.016464455,
        0.048419975,
        0.07528969,
        0.0167914,
        0.079023905,
        -0.03027009,
        0.0010739745,
        0.06558255,
        -0.06075338,
        -0.065795876,
        0.028809844,
        0.038191453,
        0.056764703,
        -0.093927205,
        -0.0076121157,
        0.08760801,
        -0.069055974,
        -0.01739348,
        0.09860061,
        -0.051664032,
        -0.004971737,
        0.07625537,
        -0.014692118,
        0.017895762,
        -0.094874926,
        -0.07421255,
        0.007099672,
        0.0685332,
        0.06702526,
        -0.075461775,
        0.06722376,
        0.02210796,
        -0.012277423,
        0.02287559,
        -0.067118935,
        -0.0036486336,
        0.04114762,
        0.029777868,
        -0.045763306,
        0.016553396,
        0.086702995,
        -0.03978925,
        0.026800342,
        0.044781554,
        0.17747362,
        0.11248377,
        0.1362378,
        0.12958439,
        0.12306126,
        0.056644555,
        -0.1396933,
        -0.106766604,
        -0.038961396,
        0.029219205,
        0.027350059,
        0.06541432,
        0.018993238,
        -0.022046069,
        -0.026344104,
        0.018119073,
        0.0042550727,
        0.005107849,
        0.0476881,
        -0.024712471,
        -0.05296848,
        0.012998456,
        -0.022382798,
        0.02373216,
        -0.0072967988,
        0.01970553,
        0.016180215,
        0.018638931,
        0.0090883905,
        0.0883039,
        0.120176695,
        0.015205526,
        0.09996336,
        0.07061294,
        0.042890523,
        -0.0035021328,
        0.005949818,
        0.053633966,
        0.028297478,
        0.036724824,
        -0.04990575,
        -0.074199945,
        0.026504677,
        -0.013894578,
        0.07181868,
        0.057168666,
        0.07483435,
        0.001927271,
        0.037725843,
        -0.006308418,
        -0.0363281,
        0.014430751,
        -0.037375063,
        -0.046035863,
        -0.018432379,
        -0.04556859,
        -0.029695814,
        0.013069627,
        -0.055663157,
        0.08815496,
        0.030522283,
        -0.053239398,
        -0.019299394,
        -0.019699419,
        0.024640566,
        -0.009067516,
        0.033651598,
        0.07350837,
        0.045373183,
        0.02643998,
        0.059506316,
        0.028632212,
        0.008673404,
        -0.044497233,
        -0.046349645,
        -0.004044392,
        0.06916875,
        0.021941233,
        0.037159313,
        0.036344487,
        -0.09045577,
        0.020104144,
        -0.099097624,
        -0.06633126,
        -0.09955919,
        -0.024274513,
        -0.1264122,
        -0.10349815,
        -0.096904725,
        -0.08066399,
        -0.06934393,
        -0.066011496,
        0.039651215,
        -0.06921475,
        0.02997694,
        -0.05567095,
        -0.044799607,
        -0.040844966,
        -0.017742267,
        0.020444654,
        -0.038546916,
        -0.03470041,
        0.04564278,
        -0.055967066,
        -0.023122909,
        -0.04025547,
        0.003231032,
        -0.0036089357,
        -0.036107477,
        0.0677653,
        -0.0013927232,
        0.035396297,
        -0.06773392,
        -0.07372055,
        0.056512028,
        -0.0639269,
        -0.033970017,
        0.07574082,
        -0.009401801,
        -0.02694365,
        -0.0044529764,
        0.012426712,
        -0.0043583633,
        0.019805262,
        0.023183504,
        0.053864513,
        0.025825545,
        0.073907025
      ],
      [
        0.044481464,
        -0.053420637,
        0.0006653539,
        -0.0577857,
        -0.055962365,
        0.072316915,
        0.033338163,
        0.061409123,
        -0.05705677,
        0.06994321,
        -0.057847798,
        0.011012841,
        -0.056500997,
        -0.058530807,
        0.0725435,
        -0.05025181,
        -0.051216673,
        0.036133774,
        0.060787417,
